FANN_FLO_2.1
num_layers=3
learning_rate=0.700000
connection_rate=1.000000
network_type=0
learning_momentum=0.000000
training_algorithm=2
train_error_function=1
train_stop_function=0
cascade_output_change_fraction=0.010000
quickprop_decay=-0.000100
quickprop_mu=1.750000
rprop_increase_factor=1.200000
rprop_decrease_factor=0.500000
rprop_delta_min=0.000000
rprop_delta_max=50.000000
rprop_delta_zero=0.100000
cascade_output_stagnation_epochs=12
cascade_candidate_change_fraction=0.010000
cascade_candidate_stagnation_epochs=12
cascade_max_out_epochs=150
cascade_min_out_epochs=50
cascade_max_cand_epochs=150
cascade_min_cand_epochs=50
cascade_num_candidate_groups=2
bit_fail_limit=3.49999994039535522461e-01
cascade_candidate_limit=1.00000000000000000000e+03
cascade_weight_multiplier=4.00000005960464477539e-01
cascade_activation_functions_count=10
cascade_activation_functions=3 5 7 8 10 11 14 15 16 17 
cascade_activation_steepnesses_count=4
cascade_activation_steepnesses=2.50000000000000000000e-01 5.00000000000000000000e-01 7.50000000000000000000e-01 1.00000000000000000000e+00 
layer_sizes=4 11 2 
scale_included=0
neurons (num_inputs, activation_function, activation_steepness)=(0, 0, 0.00000000000000000000e+00) (0, 0, 0.00000000000000000000e+00) (0, 0, 0.00000000000000000000e+00) (0, 0, 0.00000000000000000000e+00) (4, 5, 5.00000000000000000000e-01) (4, 5, 5.00000000000000000000e-01) (4, 5, 5.00000000000000000000e-01) (4, 5, 5.00000000000000000000e-01) (4, 5, 5.00000000000000000000e-01) (4, 5, 5.00000000000000000000e-01) (4, 5, 5.00000000000000000000e-01) (4, 5, 5.00000000000000000000e-01) (4, 5, 5.00000000000000000000e-01) (4, 5, 5.00000000000000000000e-01) (0, 5, 0.00000000000000000000e+00) (11, 5, 5.00000000000000000000e-01) (0, 5, 0.00000000000000000000e+00) 
connections (connected_to_neuron, weight)=(0, 3.56354797363281250000e+02) (1, 3.94203453063964843750e+01) (2, 1.50000000000000000000e+03) (3, -4.10631469726562500000e+02) (0, -1.06395202636718750000e+03) (1, 2.63872314453125000000e+02) (2, 1.50000000000000000000e+03) (3, 1.10397546386718750000e+03) (0, -3.22817962646484375000e+02) (1, 2.01924438476562500000e+02) (2, 1.50000000000000000000e+03) (3, 3.85892700195312500000e+02) (0, 8.87844681739807128906e-01) (1, -4.18216198682785034180e-01) (2, -3.16642260551452636719e+00) (3, -1.45440852642059326172e+00) (0, -2.45669311523437500000e+02) (1, -2.69880867004394531250e+00) (2, -2.73622016906738281250e+01) (3, 5.21147949218750000000e+02) (0, -8.47040954589843750000e+02) (1, -2.26809539794921875000e+01) (2, -2.88855171203613281250e+01) (3, 1.36830322265625000000e+03) (0, 1.50000000000000000000e+03) (1, -1.21917993164062500000e+03) (2, -1.50000000000000000000e+03) (3, 3.49599945068359375000e+02) (0, 4.69396942138671875000e+02) (1, -2.27915359497070312500e+02) (2, -1.50000000000000000000e+03) (3, -1.08810754394531250000e+03) (0, 3.52372894287109375000e+01) (1, 2.06447172164916992188e+00) (2, 4.48451948165893554688e+00) (3, 1.98462009429931640625e+01) (0, 1.50227689743041992188e+00) (1, -3.37965190410614013672e-01) (2, 6.65878677368164062500e+00) (3, -6.57199401855468750000e+01) (4, 1.30988371372222900391e+00) (5, 2.37333923578262329102e-01) (6, 1.34912300109863281250e+00) (7, 3.93072462081909179688e+00) (8, -1.00965666770935058594e+00) (9, -3.69715899229049682617e-01) (10, -4.17284816503524780273e-02) (11, -1.97358894348144531250e+00) (12, 4.50512647628784179688e+00) (13, 6.28473329544067382812e+00) (14, 2.16576910018920898438e+00) 
